
String dump of section '.rodata':
  [     0]  keymatch
  [     9]  src image was invalid!
  [    20]  luted image was invalid!
  [    39]  res image was invalid!
  [    50]  src image was not equal to luted!
  [    72]  LoadTextFile ...
  [    83]   %s
  [    87]  AAssetManager == NULL
  [    9d]  asset == NULL
  [    ab]  Text file size: %ld^J
  [    c0]  LoadTextFile exit.
  [    d3]  AndroidBitmap_getInfo() failed ! error = %d
  [    ff]  Bitmap format is not RGBA_8888!
  [   11f]  Bitmap LockPixels Failed return = %d!
  [   145]  Bitmap failed convert to Mat!
  [   163]  android/graphics/Bitmap$Config
  [   182]  ARGB_8888
  [   18c]  Landroid/graphics/Bitmap$Config;
  [   1ad]  android/graphics/Bitmap
  [   1c5]  createBitmap
  [   1d2]  (IILandroid/graphics/Bitmap$Config;)Landroid/graphics/Bitmap;
  [   210]  setPixels
  [   21a]  ([IIIIIII)V
  [   226]  vector::_M_range_insert
  [   23e]  vector::_M_default_append
  [   258]  opencv_storage
  [   267]  my_svm
  [   26e]  opencv_ml_svm
  [   27c]  static Ptr<cv::myml::SVM> cv::myml::SVM::load(const char *, size_t)
  [   2c0]  /Users/hareri/Downloads/SkyFilter/app/src/main/jni/SkyDetector/SVMPredictor.cpp
  [   310]  svm_type
  [   319]  svmType
  [   321]  C_SVC
  [   327]  NU_SVC
  [   32e]  NU_SVR
  [   335]  kernel
  [   33c]  type
  [   341]  LINEAR
  [   348]  POLY
  [   34d]  RBF
  [   351]  CHI2
  [   356]  INTER
  [   35c]  degree
  [   363]  gamma
  [   369]  coef0
  [   36f]  C
  [   371]  nu
  [   374]  p
  [   376]  sv_total
  [   37f]  sv_count
  [   388]  rho
  [   38c]  alpha
  [   392]  index
  [   398]  optimize_linear
  [   3a8]  void cv::myml::SVMImpl::read(const cv::FileNode &)
  [   3db]  void cv::myml::SVMImpl::read_params(const cv::FileNode &)
  [   416]  void cv::myml::SVMImpl::checkParams()
  [   43c]  virtual void cv::myml::SVMKernelImpl::calc(int, int, const float *, const float *, Qfloat *)
  [   499]  float cv::myml::SVMImpl::predict(InputArray, OutputArray, int) const
  [   4de]  virtual void cv::myml::SVMImpl::PredictBody::operator()(const cv::Range &) const
  [   52f]  void cv::myml::SVMImpl::write(cv::FileStorage &) const
  [   566]  Uknown_%d
  [   570]  Unknown_%d
  [   57b]  cv::FileStorage &cv::operator<<(cv::FileStorage &, const _Tp &) [_Tp = int]
  [   5c7]  /Users/hareri/Documents/engine/nativebeautyengine/jni/sdk/native/jni/include/opencv2/core/persistence.hpp
  [   631]  cv::FileStorage &cv::operator<<(cv::FileStorage &, const _Tp &) [_Tp = cv::Mat]
  [   681]  cv::FileStorage &cv::operator<<(cv::FileStorage &, const _Tp &) [_Tp = double]
  [   6d0]  SVR
  [   6d4]  SVM
  [   6d8]  %d_%.1f_%d_%d_%d__%d_%d_%d_%d_%d__%d_%d_%d_%d__%d_%d_%d__%.1f_%.1f_%.1f_%.1f_%s.xml
  [   72c]  gsK
  [   730]  lmLen
  [   736]  lmWeight
  [   73f]  lmBins
  [   746]  isSVR
  [   74c]  cv::FileStorage &cv::operator<<(cv::FileStorage &, const _Tp &) [_Tp = bool]
  [   799]  cv::FileStorage &cv::operator<<(cv::FileStorage &, const _Tp &) [_Tp = float]
  [   7e7]   
  [   7ed]  rows
  [   7f2]  cols
  [   7f7]  dt
  [   7fa]  data
  [   7ff]  basic_string::substr
  [   814]  %s: __pos (which is %zu) > this->size() (which is %zu)
  [   84b]  %d
  [   84e]  %u
  [   851]  %s
  [   854]  true
  [   859]  false
  [   85f]  %.8g
  [   864]  %.17g
  [   86a]  %lld
  [   86f]  %f
  [   872]  %lf
  [   876]  <?
  [   879]  <!--
  [   87e]  <![CDATA[
  [   888]  <!
  [   88b]  <
  [   88d]  ]]>
  [   891]  -->
  [   895]  ?>
  [   898]  >
  [   89a]  XML_SUCCESS
  [   8a6]  XML_NO_ATTRIBUTE
  [   8b7]  XML_WRONG_ATTRIBUTE_TYPE
  [   8d0]  XML_ERROR_FILE_NOT_FOUND
  [   8e9]  XML_ERROR_FILE_COULD_NOT_BE_OPENED
  [   90c]  XML_ERROR_FILE_READ_ERROR
  [   926]  XML_ERROR_ELEMENT_MISMATCH
  [   941]  XML_ERROR_PARSING_ELEMENT
  [   95b]  XML_ERROR_PARSING_ATTRIBUTE
  [   977]  XML_ERROR_IDENTIFYING_TAG
  [   991]  XML_ERROR_PARSING_TEXT
  [   9a8]  XML_ERROR_PARSING_CDATA
  [   9c0]  XML_ERROR_PARSING_COMMENT
  [   9da]  XML_ERROR_PARSING_DECLARATION
  [   9f8]  XML_ERROR_PARSING_UNKNOWN
  [   a12]  XML_ERROR_EMPTY_DOCUMENT
  [   a2b]  XML_ERROR_MISMATCHED_ELEMENT
  [   a48]  XML_ERROR_PARSING
  [   a5a]  XML_CAN_NOT_CONVERT_TEXT
  [   a73]  XML_NO_TEXT_NODE
  [   a84]  xml version="1.0" encoding="UTF-8"
  [   aa7]  rb
  [   aaa]  w
  [   aac]  XMLDocument error id=%d '%s' str1=%s str2=%s^J
  [   ada]      
  [   adf]  %.*s
  [   ae4]  &%s;
  [   ae9]  xml version="1.0"
  [   afb]  <%s
  [   aff]   %s="
  [   b05]  "
  [   b07]  />
  [   b0a]  </%s>
  [   b10]  <![CDATA[%s]]>
  [   b1f]  <!--%s-->
  [   b29]  <?%s?>
  [   b30]  <!%s>
  [   b36]  quot
  [   b3b]  amp
  [   b3f]  apos
  [   b44]  lt
  [   b47]  gt
  [   b4b]  %s^J
  [   b4f]  Number of labels must be >= 2
  [   b6d]  Number of sites must be >= 1
  [   b8a]  Not enough memory.
  [   b9d]  Cannot apply sparse data costs after dense data costs have been used.
  [   be3]  Label costs must be non-negative.
  [   c05]  Label cost was larger than GCO_MAX_ENERGYTERM; danger of integer overflow.
  [   c50]  Invalid label id was found in label subset list.
  [   c81]  starting alpha-expansion w/ adaptive cycles
  [   cad]  starting alpha-expansion w/ standard cycles
  [   cd9]  setLabelOrder receieved too many labels
  [   d01]  Invalid label id in setLabelOrder
  [   d23]  starting alpha/beta-swap
  [   d3c]  Label costs only implemented for alpha-expansion.
  [   d6e]  Already set up neighborhood system.
  [   d92]  gco>> %s^J
  [   d9c]  gco>> initial energy: ^IE=%lld (E=%lld+%lld+%lld)^J
  [   dce]  gco>> after cycle %2d: ^IE=%lld (E=%lld+%lld+%lld);
  [   e01]   ^I%d swaps(s);
  [   e10]   ^I%d expansions(s);
  [   e24]   ^I%d ms
  [   e2c]  gco>>   after swap(%d,%d):
  [   e47]  gco>>   after expansion(%d):
  [   e64]   ^IE=%lld (E=%lld+%lld+%lld);^I %lld vars;
  [   e8d]   ^I(%d of %d);
  [   e9c]   %.2f ms^J
  [   ea7]   %.3f ms^J
  [   eb1]  Invalid site id given for sparse data cost; must be within range.
  [   ef3]  Sparse data costs must be sorted in increasing order of SiteID
  [   f32]  Data cost term was larger than GCO_MAX_ENERGYTERM; danger of integer overflow.
  [   f81]  Data cost was larger than GCO_MAX_ENERGYTERM; danger of integer overflow.
  [   fcb]  starting greedy algorithm (1 cycle only)
  [   ff4]  Smooth cost term was larger than GCO_MAX_ENERGYTERM; danger of integer overflow.
  [  1045]  Smoothness weight was larger than GCO_MAX_ENERGYTERM; danger of integer overflow.
  [  1097]  Non-submodular expansion term detected; smooth costs must be a metric for expansion
  [  10eb]  Not enough memory!
  [  10fe]  reuse_trees cannot be used in the first call to maxflow()!
  [  1139]  changed_list cannot be used without reuse_trees!
  [  116a]  virtual void (anonymous namespace)::AdaptiveManifoldFilterN::filter(InputArray, OutputArray, InputArray)
  [  11d3]  /Users/hareri/Downloads/SkyFilter/app/src/main/jni/ximgproc/adaptive_manifold_filter_n.cpp
  [  122e]  void (anonymous namespace)::AdaptiveManifoldFilterN::initSrcAndJoint(InputArray, InputArray)
  [  128b]  static void (anonymous namespace)::AdaptiveManifoldFilterN::computeEigenVector(const vector<cv::Mat> &, const Mat1b &, Mat1f &, int, const Mat1f &)
  [  131f]  static Ptr<cv::ximgproc::DTFilterCPU> cv::ximgproc::DTFilterCPU::createRF(InputArray, InputArray, double, double, int)
  [  1396]  /Users/hareri/Downloads/SkyFilter/app/src/main/jni/ximgproc/dtfilter_cpu.cpp
  [  13e3]  void cv::ximgproc::DTFilterCPU::init(InputArray, double, double, int, int)
  [  142e]  virtual void cv::ximgproc::DTFilterCPU::filter(InputArray, OutputArray, int)
  [  147b]  void cv::ximgproc::DTFilterCPU::init_(cv::Mat &, double, double, int, int) [GuideVec = cv::Vec<unsigned char, 1>]
  [  14ed]  /Users/hareri/Downloads/SkyFilter/app/src/main/jni/ximgproc/dtfilter_cpu.inl.hpp
  [  153e]  void cv::ximgproc::DTFilterCPU::init_(cv::Mat &, double, double, int, int) [GuideVec = cv::Vec<float, 1>]
  [  15a8]  void cv::ximgproc::DTFilterCPU::init_(cv::Mat &, double, double, int, int) [GuideVec = cv::Vec<unsigned char, 2>]
  [  161a]  void cv::ximgproc::DTFilterCPU::init_(cv::Mat &, double, double, int, int) [GuideVec = cv::Vec<float, 2>]
  [  1684]  void cv::ximgproc::DTFilterCPU::init_(cv::Mat &, double, double, int, int) [GuideVec = cv::Vec<unsigned char, 3>]
  [  16f6]  void cv::ximgproc::DTFilterCPU::init_(cv::Mat &, double, double, int, int) [GuideVec = cv::Vec<float, 3>]
  [  1760]  void cv::ximgproc::DTFilterCPU::init_(cv::Mat &, double, double, int, int) [GuideVec = cv::Vec<unsigned char, 4>]
  [  17d2]  void cv::ximgproc::DTFilterCPU::init_(cv::Mat &, double, double, int, int) [GuideVec = cv::Vec<float, 4>]
  [  183c]  void cv::ximgproc::DTFilterCPU::filter_(const cv::Mat &, cv::Mat &, int) [SrcVec = cv::Vec<unsigned char, 1>]
  [  18aa]  void cv::ximgproc::DTFilterCPU::filter_(const cv::Mat &, cv::Mat &, int) [SrcVec = cv::Vec<float, 1>]
  [  1910]  void cv::ximgproc::DTFilterCPU::filter_(const cv::Mat &, cv::Mat &, int) [SrcVec = cv::Vec<unsigned char, 2>]
  [  197e]  void cv::ximgproc::DTFilterCPU::filter_(const cv::Mat &, cv::Mat &, int) [SrcVec = cv::Vec<float, 2>]
  [  19e4]  void cv::ximgproc::DTFilterCPU::filter_(const cv::Mat &, cv::Mat &, int) [SrcVec = cv::Vec<unsigned char, 3>]
  [  1a52]  void cv::ximgproc::DTFilterCPU::filter_(const cv::Mat &, cv::Mat &, int) [SrcVec = cv::Vec<float, 3>]
  [  1ab8]  void cv::ximgproc::DTFilterCPU::filter_(const cv::Mat &, cv::Mat &, int) [SrcVec = cv::Vec<unsigned char, 4>]
  [  1b26]  void cv::ximgproc::DTFilterCPU::filter_(const cv::Mat &, cv::Mat &, int) [SrcVec = cv::Vec<float, 4>]
  [  1b8c]  void cv::ximgproc::checkSameSizeAndDepth(InputArrayOfArrays, Size &, int &)
  [  1bd8]  /Users/hareri/Downloads/SkyFilter/app/src/main/jni/ximgproc/edgeaware_filters_common.cpp
  [  1c31]  name
  [  1c36]  sigma
  [  1c3c]  k
  [  1c3e]  min_size
  [  1c47]  virtual void cv::ximgproc::segmentation::GraphSegmentationImpl::read(const cv::FileNode &)
  [  1ca2]  /Users/hareri/Downloads/SkyFilter/app/src/main/jni/ximgproc/graphsegmentation.cpp
  [  1cf4]  void cv::ximgproc::GuidedFilterImpl::init(InputArray, int, double)
  [  1d37]  /Users/hareri/Downloads/SkyFilter/app/src/main/jni/ximgproc/guided_filter.cpp
  [  1d85]  virtual void cv::ximgproc::GuidedFilterImpl::filter(InputArray, OutputArray, int)
  [  1dd7]  void cv::ximgproc::jointBilateralFilter_32f(cv::Mat &, cv::Mat &, cv::Mat &, int, double, double, int)
  [  1e3e]  /Users/hareri/Downloads/SkyFilter/app/src/main/jni/ximgproc/joint_bilateral_filter.cpp
  [  1e95]  void cv::ximgproc::jointBilateralFilter_8u(cv::Mat &, cv::Mat &, cv::Mat &, int, double, double, int)
  [  1efb]  void cv::ximgproc::jointBilateralFilter(InputArray, InputArray, OutputArray, int, double, double, int)
  [  1f62]  void cv::ximgproc::l0Smooth(InputArray, OutputArray, double, double)
  [  1fa7]  /Users/hareri/Downloads/SkyFilter/app/src/main/jni/ximgproc/l0_smooth.cpp
  [  1ff8]  Missing or invalid SVM type
  [  2018]  ONE_CLASS
  [  2028]  EPS_SVR
  [  2030]  SIGMOID
  [  2038]  Invalid SVM kernel type (or custom kernel)
  [  2068]  term_criteria
  [  2078]  epsilon
  [  2080]  iterations
  [  2090]  var_count
  [  20a0]  class_count
  [  20b0]  SVM model data is invalid, check sv_count, var_* and class_count tags
  [  20f8]  class_labels
  [  2108]  class_weights
  [  2118]  Array of class labels is missing or invalid
  [  2148]  support_vectors
  [  2158]  GetNodeSize(svNode) == sv_total
  [  2178]  uncompressed_sv_total
  [  2190]  GetNodeSize(unsvNode) == uncompressed_sv_total
  [  21c0]  decision_functions
  [  21d8]  GetNodeSize(dfNode) == df_count
  [  21f8]  (int)sv_node.size() == sv_total
  [  2218]  uncompressed_support_vectors
  [  2238]  (int)uncompressed_sv_node.size() == uncompressed_sv_total
  [  2278]  (int)df_node.size() == df_count
  [  2298]  SVM kernel tag is not found
  [  22b8]  Unknown/unsupported kernel type
  [  22d8]  gamma parameter of the kernel must be positive
  [  2308]  The kernel parameter <coef0> must be positive or zero
  [  2340]  The kernel parameter <degree> must be positive
  [  2370]  Custom kernel is not set
  [  2390]  Unknown/unsupported SVM type
  [  23b0]  The parameter C must be positive
  [  23d8]  The parameter nu must be between 0 and 1
  [  2408]  The parameter p must be positive
  [  2430]  Unknown kernel type
  [  2448]  samples.cols == var_count && samples.type() == CV_32F
  [  2480]  nsamples == 1
  [  2490]  INTERNAL ERROR: Unknown SVM type, the SVM structure is probably corrupted
  [  24e0]  var_all
  [  24e8]  sv_count == sv_total
  [  2500]  No element name has been given
  [  2520]  maxImgLen
  [  2530]  gsSigma
  [  2538]  gsMinSize
  [  2548]  rgbWeight
  [  2558]  colorWeight
  [  2568]  locationWeight
  [  2578]  shapeWeight
  [  2588]  rgbBins
  [  2590]  colorHBins
  [  25a0]  colorSBins
  [  25b0]  colorVBins
  [  25c0]  locationBins
  [  25d0]  shapeBins
  [  25e0]  trainError
  [  25f0]  testError
  [  2600]  nativeError
  [  2610]  finalError
  [  2620]  sigma_s_ >= 1 && (sigma_r_ > 0 && sigma_r_ <= 1)
  [  2658]  jointSize == srcSize && (jointDepth == CV_8U || jointDepth == CV_16U || jointDepth == CV_32F)
  [  26b8]  vecRand.size() == Size(cnNum, 1) && vecDst.size() == Size(cnNum, 1)
  [  2700]  mask.rows == height && mask.cols == width
  [  2730]  adh.type() == CV_32FC1 && adv.type() == CV_32FC1 && adh.rows == adv.rows + 1 && adh.cols == adv.cols - 1
  [  27a0]  cn <= 4
  [  27a8]  (depth == CV_8U || depth == CV_32F) && !guide.empty()
  [  27e0]  cn <= 4 && (depth == CV_8U || depth == CV_32F)
  [  2810]  guide.type() == cv::DataType<GuideVec>::type
  [  2840]  Incorrect DT filter mode
  [  2860]  src.type() == SrcVec::type
  [  2880]  Size of filtering image must be equal to size of guide image
  [  28c0]  numFilterCalls == 0
  [  28d8]  !src.empty()
  [  28e8]  GraphSegmentation
  [  2900]  (String)fn["name"] == name_
  [  2920]  !guide.empty() && radius_ >= 0 && eps_ >= 0
  [  2950]  (guide.depth() == CV_32F || guide.depth() == CV_8U || guide.depth() == CV_16U) && (guide.channels() <= 3)
  [  29c0]  !src.empty() && (src.depth() == CV_32F || src.depth() == CV_8U)
  [  2a00]  srcElemStep == jElemStep
  [  2a20]  !src_.empty()
  [  2a30]  src.size() == joint.size()
  [  2a50]  src.depth() == joint.depth() && (src.depth() == CV_8U || src.depth() == CV_32F)
  [  2aa0]  Unsupported number of channels
  [  2ac0]  !S.empty()
  [  2ad0]  S.depth() == CV_8U || S.depth() == CV_16U || S.depth() == CV_32F || S.depth() == CV_64F
  [  2b30]  N2cv4myml13SVMKernelImplE
  [  2b50]  N2cv4myml3SVM6KernelE
  [  2b70]  N2cv6detail12PtrOwnerImplINS_4myml13SVMKernelImplENS_14DefaultDeleterIS3_EEEE
  [  2bc0]  N2cv6detail8PtrOwnerE
  [  2be0]  N2cv4myml7SVMImpl11PredictBodyE
  [  2c00]  N2cv6detail12PtrOwnerImplINS_4myml7SVMImplENS_14DefaultDeleterIS3_EEEE
  [  2c60]  17SkyDetectorParams
  [  2c80]  17SVMDetectorParams
  [  2ca0]  N2cv6detail12PtrOwnerImplI17SkyDetectorParamsNS_14DefaultDeleterIS2_EEEE
  [  2d10]  N8tinyxml27XMLTextE
  [  2d30]  N8tinyxml27XMLNodeE
  [  2d50]  N8tinyxml210XMLPrinterE
  [  2d70]  N8tinyxml210XMLCommentE
  [  2d90]  N8tinyxml214XMLDeclarationE
  [  2db0]  N8tinyxml210XMLUnknownE
  [  2dd0]  N8tinyxml210XMLElementE
  [  2df0]  N8tinyxml211XMLDocumentE
  [  2e10]  N8tinyxml210XMLVisitorE
  [  2e30]  N8tinyxml212XMLAttributeE
  [  2e50]  N8tinyxml28MemPoolTILi56EEE
  [  2e70]  N8tinyxml27MemPoolE
  [  2e90]  N8tinyxml28MemPoolTILi36EEE
  [  2eb0]  N8tinyxml28MemPoolTILi52EEE
  [  2ed0]  N8tinyxml28MemPoolTILi48EEE
  [  2ef0]  11GCException
  [  2f00]  14GCoptimization
  [  2f20]  23GCoptimizationGridGraph
  [  2f40]  26GCoptimizationGeneralGraph
  [  2f60]  N12_GLOBAL__N_123AdaptiveManifoldFilterNE
  [  2f90]  N12_GLOBAL__N_123AdaptiveManifoldFilterN18MapPrallelLoopBodyE
  [  2fd0]  N2cv6detail12PtrOwnerImplIN12_GLOBAL__N_123AdaptiveManifoldFilterNENS_14DefaultDeleterIS3_EEEE
  [  3030]  N2cv8ximgproc22AdaptiveManifoldFilterE
  [  3060]  N2cv8ximgproc11DTFilterCPUE
  [  3080]  N2cv8ximgproc8DTFilterE
  [  30a0]  N2cv6detail12PtrOwnerImplINS_8ximgproc11DTFilterCPUENS_14DefaultDeleterIS3_EEEE
  [  30f0]  N2cv8ximgproc11DTFilterCPU21ComputeIDTHor_ParBodyINS_3VecIhLi1EEEEE
  [  3140]  N2cv8ximgproc11DTFilterCPU26ComputeDTandIDTHor_ParBodyINS_3VecIhLi1EEEEE
  [  3190]  N2cv8ximgproc11DTFilterCPU22ComputeA0DTHor_ParBodyINS_3VecIhLi1EEEEE
  [  31e0]  N2cv8ximgproc11DTFilterCPU23ComputeA0DTVert_ParBodyINS_3VecIhLi1EEEEE
  [  3230]  N2cv8ximgproc11DTFilterCPU21ComputeIDTHor_ParBodyINS_3VecIfLi1EEEEE
  [  3280]  N2cv8ximgproc11DTFilterCPU26ComputeDTandIDTHor_ParBodyINS_3VecIfLi1EEEEE
  [  32d0]  N2cv8ximgproc11DTFilterCPU22ComputeA0DTHor_ParBodyINS_3VecIfLi1EEEEE
  [  3320]  N2cv8ximgproc11DTFilterCPU23ComputeA0DTVert_ParBodyINS_3VecIfLi1EEEEE
  [  3370]  N2cv8ximgproc11DTFilterCPU21ComputeIDTHor_ParBodyINS_3VecIhLi2EEEEE
  [  33c0]  N2cv8ximgproc11DTFilterCPU26ComputeDTandIDTHor_ParBodyINS_3VecIhLi2EEEEE
  [  3410]  N2cv8ximgproc11DTFilterCPU22ComputeA0DTHor_ParBodyINS_3VecIhLi2EEEEE
  [  3460]  N2cv8ximgproc11DTFilterCPU23ComputeA0DTVert_ParBodyINS_3VecIhLi2EEEEE
  [  34b0]  N2cv8ximgproc11DTFilterCPU21ComputeIDTHor_ParBodyINS_3VecIfLi2EEEEE
  [  3500]  N2cv8ximgproc11DTFilterCPU26ComputeDTandIDTHor_ParBodyINS_3VecIfLi2EEEEE
  [  3550]  N2cv8ximgproc11DTFilterCPU22ComputeA0DTHor_ParBodyINS_3VecIfLi2EEEEE
  [  35a0]  N2cv8ximgproc11DTFilterCPU23ComputeA0DTVert_ParBodyINS_3VecIfLi2EEEEE
  [  35f0]  N2cv8ximgproc11DTFilterCPU21ComputeIDTHor_ParBodyINS_3VecIhLi3EEEEE
  [  3640]  N2cv8ximgproc11DTFilterCPU26ComputeDTandIDTHor_ParBodyINS_3VecIhLi3EEEEE
  [  3690]  N2cv8ximgproc11DTFilterCPU22ComputeA0DTHor_ParBodyINS_3VecIhLi3EEEEE
  [  36e0]  N2cv8ximgproc11DTFilterCPU23ComputeA0DTVert_ParBodyINS_3VecIhLi3EEEEE
  [  3730]  N2cv8ximgproc11DTFilterCPU21ComputeIDTHor_ParBodyINS_3VecIfLi3EEEEE
  [  3780]  N2cv8ximgproc11DTFilterCPU26ComputeDTandIDTHor_ParBodyINS_3VecIfLi3EEEEE
  [  37d0]  N2cv8ximgproc11DTFilterCPU22ComputeA0DTHor_ParBodyINS_3VecIfLi3EEEEE
  [  3820]  N2cv8ximgproc11DTFilterCPU23ComputeA0DTVert_ParBodyINS_3VecIfLi3EEEEE
  [  3870]  N2cv8ximgproc11DTFilterCPU21ComputeIDTHor_ParBodyINS_3VecIhLi4EEEEE
  [  38c0]  N2cv8ximgproc11DTFilterCPU26ComputeDTandIDTHor_ParBodyINS_3VecIhLi4EEEEE
  [  3910]  N2cv8ximgproc11DTFilterCPU22ComputeA0DTHor_ParBodyINS_3VecIhLi4EEEEE
  [  3960]  N2cv8ximgproc11DTFilterCPU23ComputeA0DTVert_ParBodyINS_3VecIhLi4EEEEE
  [  39b0]  N2cv8ximgproc11DTFilterCPU21ComputeIDTHor_ParBodyINS_3VecIfLi4EEEEE
  [  3a00]  N2cv8ximgproc11DTFilterCPU26ComputeDTandIDTHor_ParBodyINS_3VecIfLi4EEEEE
  [  3a50]  N2cv8ximgproc11DTFilterCPU22ComputeA0DTHor_ParBodyINS_3VecIfLi4EEEEE
  [  3aa0]  N2cv8ximgproc11DTFilterCPU23ComputeA0DTVert_ParBodyINS_3VecIfLi4EEEEE
  [  3af0]  N2cv8ximgproc11DTFilterCPU16FilterNC_horPassINS_3VecIfLi1EEEEE
  [  3b30]  N2cv8ximgproc11DTFilterCPU16FilterIC_horPassINS_3VecIfLi1EEEEE
  [  3b70]  N2cv8ximgproc11DTFilterCPU16FilterRF_horPassINS_3VecIfLi1EEEEE
  [  3bb0]  N2cv8ximgproc11DTFilterCPU17FilterRF_vertPassINS_3VecIfLi1EEEEE
  [  3bf0]  N2cv8ximgproc11DTFilterCPU16FilterNC_horPassINS_3VecIfLi2EEEEE
  [  3c30]  N2cv8ximgproc11DTFilterCPU16FilterIC_horPassINS_3VecIfLi2EEEEE
  [  3c70]  N2cv8ximgproc11DTFilterCPU16FilterRF_horPassINS_3VecIfLi2EEEEE
  [  3cb0]  N2cv8ximgproc11DTFilterCPU17FilterRF_vertPassINS_3VecIfLi2EEEEE
  [  3cf0]  N2cv8ximgproc11DTFilterCPU16FilterNC_horPassINS_3VecIfLi3EEEEE
  [  3d30]  N2cv8ximgproc11DTFilterCPU16FilterIC_horPassINS_3VecIfLi3EEEEE
  [  3d70]  N2cv8ximgproc11DTFilterCPU16FilterRF_horPassINS_3VecIfLi3EEEEE
  [  3db0]  N2cv8ximgproc11DTFilterCPU17FilterRF_vertPassINS_3VecIfLi3EEEEE
  [  3df0]  N2cv8ximgproc11DTFilterCPU16FilterNC_horPassINS_3VecIfLi4EEEEE
  [  3e30]  N2cv8ximgproc11DTFilterCPU16FilterIC_horPassINS_3VecIfLi4EEEEE
  [  3e70]  N2cv8ximgproc11DTFilterCPU16FilterRF_horPassINS_3VecIfLi4EEEEE
  [  3eb0]  N2cv8ximgproc11DTFilterCPU17FilterRF_vertPassINS_3VecIfLi4EEEEE
  [  3ef0]  N2cv8ximgproc12segmentation21GraphSegmentationImplE
  [  3f30]  N2cv8ximgproc12segmentation17GraphSegmentationE
  [  3f60]  N2cv6detail12PtrOwnerImplINS_8ximgproc12segmentation21GraphSegmentationImplENS_14DefaultDeleterIS4_EEEE
  [  4060]  N2cv8ximgproc16GuidedFilterImplE
  [  4090]  N2cv8ximgproc16GuidedFilterImpl24MulChannelsGuide_ParBodyE
  [  40d0]  N2cv8ximgproc16GuidedFilterImpl38ComputeCovGuideFromChannelsMul_ParBodyE
  [  4120]  N2cv8ximgproc16GuidedFilterImpl30MulChannelsGuideAndSrc_ParBodyE
  [  4170]  N2cv8ximgproc16GuidedFilterImpl36ComputeCovFromSrcChannelsMul_ParBodyE
  [  41c0]  N2cv8ximgproc16GuidedFilterImpl20ComputeAlpha_ParBodyE
  [  4200]  N2cv8ximgproc16GuidedFilterImpl19ComputeBeta_ParBodyE
  [  4240]  N2cv8ximgproc16GuidedFilterImpl22ApplyTransform_ParBodyE
  [  4280]  N2cv8ximgproc16GuidedFilterImpl26ComputeCovGuideInv_ParBodyE
  [  42c0]  N2cv8ximgproc16GuidedFilterImpl19GFTransform_ParBodyE
  [  4300]  N2cv8ximgproc12GuidedFilterE
  [  4320]  N2cv6detail12PtrOwnerImplINS_8ximgproc16GuidedFilterImplENS_14DefaultDeleterIS3_EEEE
  [  4380]  N2cv8ximgproc24JointBilateralFilter_32fINS_3VecIfLi1EEES3_EE
  [  43c0]  N2cv8ximgproc24JointBilateralFilter_32fINS_3VecIfLi1EEENS2_IfLi3EEEEE
  [  4410]  N2cv8ximgproc24JointBilateralFilter_32fINS_3VecIfLi3EEENS2_IfLi1EEEEE
  [  4460]  N2cv8ximgproc24JointBilateralFilter_32fINS_3VecIfLi3EEES3_EE
  [  44a0]  N2cv8ximgproc23JointBilateralFilter_8uINS_3VecIhLi1EEES3_EE
  [  44e0]  N2cv8ximgproc23JointBilateralFilter_8uINS_3VecIhLi1EEENS2_IhLi3EEEEE
  [  4530]  N2cv8ximgproc23JointBilateralFilter_8uINS_3VecIhLi3EEENS2_IhLi1EEEEE
  [  4580]  N2cv8ximgproc23JointBilateralFilter_8uINS_3VecIhLi3EEES3_EE
  [  45c0]  N12_GLOBAL__N_111ParallelDftE
  [  45e0]  N12_GLOBAL__N_124ParallelDivComplexByRealE
  [  4610]  N12_GLOBAL__N_112ParallelIdftE
  [  4630]  N10__cxxabiv117__class_type_infoE
  [  4654]  N9__gnu_cxx24__concurrence_lock_errorE
  [  467c]  N9__gnu_cxx26__concurrence_unlock_errorE
  [  46a8]  __gnu_cxx::__concurrence_lock_error
  [  46cc]  __gnu_cxx::__concurrence_unlock_error
  [  46f4]  std::exception
  [  4704]  std::bad_exception
  [  4718]  pure virtual method called^J
  [  4734]  deleted virtual method called^J
  [  4754]  C
  [  4758]  POSIX
  [  4760]  %s: __pos (which is %zu) > this->size() (which is %zu)
  [  4798]  basic_string::erase
  [  47ac]  %.*Lf
  [  47b4]  %m/%d/%y
  [  47c0]  %H:%M
  [  47c8]  %H:%M:%S
  [  47d4]  locale::_S_normalize_category category not found
  [  4808]  locale::_Impl::_M_replace_facet
  [  4828]  -+xX0123456789abcdef0123456789ABCDEF
  [  4850]  -+xX0123456789abcdefABCDEF
  [  486c]  -0123456789
  [  4878]  GMT
  [  487c]  HST
  [  4880]  AKST
  [  4888]  PST
  [  488c]  MST
  [  4890]  CST
  [  4894]  EST
  [  4898]  AST
  [  489c]  NST
  [  48a0]  CET
  [  48a4]  IST
  [  48a8]  EET
  [  48ac]  JST
  [  48b0]  *
  [  48b4]  true
  [  48bc]  false
  [  48c4]  AM
  [  48c8]  PM
  [  48cc]  Sunday
  [  48d4]  Monday
  [  48dc]  Tuesday
  [  48e4]  Wednesday
  [  48f0]  Thursday
  [  48fc]  Friday
  [  4904]  Saturday
  [  4910]  Sun
  [  4914]  Mon
  [  4918]  Tue
  [  491c]  Wed
  [  4920]  Thu
  [  4924]  Fri
  [  4928]  Sat
  [  492c]  January
  [  4934]  February
  [  4940]  March
  [  4948]  April
  [  4950]  May
  [  4954]  June
  [  495c]  July
  [  4964]  August
  [  496c]  September
  [  4978]  October
  [  4980]  November
  [  498c]  December
  [  4998]  Jan
  [  499c]  Feb
  [  49a0]  Mar
  [  49a4]  Apr
  [  49a8]  Jun
  [  49ac]  Jul
  [  49b0]  Aug
  [  49b4]  Sep
  [  49b8]  Oct
  [  49bc]  Nov
  [  49c0]  Dec
  [  49c4]  std::future_error
  [  49d8]  bad_function_call
  [  49ec]  future
  [  49f4]  Broken promise
  [  4a04]  Future already retrieved
  [  4a20]  Promise already satisfied
  [  4a3c]  No associated state
  [  4a50]  Unknown error
  [  4a60]  regex_error
  [  4a6c]  not enough space for format expansion (Please submit full bug report at http://gcc.gnu.org/bugs.html):^J    
  [  4ad8]  basic_string::_S_create
  [  4af0]  basic_string::append
  [  4b08]  basic_string::at: __n (which is %zu) >= this->size() (which is %zu)
  [  4b4c]  basic_string::copy
  [  4b60]  basic_string::compare
  [  4b78]  basic_string::_M_replace_aux
  [  4b98]  basic_string::assign
  [  4bb0]  basic_string::insert
  [  4bc8]  basic_string::resize
  [  4be0]  basic_string::replace
  [  4bf8]  basic_string::_S_construct null not valid
  [  4c24]  basic_string::basic_string
  [  4c40]  basic_string::substr
  [  4c58]  generic
  [  4c60]  system
  [  4c68]  std::bad_alloc
  [  4c78]  std::bad_cast
  [  4c88]  std::bad_typeid
  [  4c98]  terminate called recursively^J
  [  4cb8]  terminate called after throwing an instance of '
  [  4cec]  '^J
  [  4cf0]  terminate called without an active exception^J
  [  4d20]    what():  
  [  4d2c]  %Lf
  [  4d30]  locale::facet::_S_create_c_locale name not valid
  [  4d64]  LC_CTYPE
  [  4d70]  LC_NUMERIC
  [  4d7c]  LC_TIME
  [  4d84]  LC_COLLATE
  [  4d90]  LC_MONETARY
  [  4d9c]  LC_MESSAGES
  [  4da8]  space
  [  4db0]  print
  [  4db8]  cntrl
  [  4dc0]  upper
  [  4dc8]  lower
  [  4dd0]  alpha
  [  4dd8]  digit
  [  4de0]  punct
  [  4de8]  xdigit
  [  4df0]  alnum
  [  4df8]  graph
  [  4e00]  basic_ios::clear
  [  4e14]  ios_base::_M_grow_words is not valid
  [  4e3c]  ios_base::_M_grow_words allocation failed
  [  4e68]  basic_filebuf::underflow codecvt::max_length() is not valid
  [  4ea4]  basic_filebuf::underflow incomplete character in file
  [  4edc]  basic_filebuf::underflow invalid byte sequence in file
  [  4f14]  basic_filebuf::underflow error reading the file
  [  4f44]  basic_filebuf::xsgetn error reading the file
  [  4f74]  basic_filebuf::_M_convert_to_external conversion error
  [  4fac]  std::bad_array_length
  [  4fc4]  std::bad_array_new_length
  [  4fe0]  _GLOBAL_
  [  4fec]  (anonymous namespace)
  [  5004]  st
  [  5008]  cl
  [  500c]  dt
  [  5010]  pt
  [  5014]  qu
  [  5018]  auto
  [  5020]  li
  [  5024]  string literal
  [  5034]  std
  [  5038]  {default arg#
  [  5048]  %ld
  [  504c]  }::
  [  5050]  JArray
  [  5058]  []
  [  505c]  vtable for 
  [  5068]  VTT for 
  [  5074]  construction vtable for 
  [  5090]  typeinfo for 
  [  50a0]  typeinfo name for 
  [  50b4]  typeinfo fn for 
  [  50c8]  non-virtual thunk to 
  [  50e0]  virtual thunk to 
  [  50f4]  covariant return thunk to 
  [  5110]  java Class for 
  [  5120]  guard variable for 
  [  5134]  TLS init function for 
  [  514c]  TLS wrapper function for 
  [  5168]  reference temporary #
  [  5180]   for 
  [  5188]  hidden alias for 
  [  519c]  transaction clone for 
  [  51b4]  non-transaction clone for 
  [  51d0]  operator
  [  51dc]  operator 
  [  51e8]  ad
  [  51ec]  gs
  [  51f0]  ix
  [  51f4]   : 
  [  51f8]  new 
  [  5200]  ul
  [  5204]  ll
  [  5208]  ull
  [  520c]  java resource 
  [  521c]  decltype (
  [  5228]  ...
  [  522c]  global constructors keyed to 
  [  524c]  global destructors keyed to 
  [  526c]  {lambda(
  [  5278]  {unnamed type#
  [  5288]   [clone 
  [  5294]  >(
  [  5298]   restrict
  [  52a4]   volatile
  [  52b0]  complex 
  [  52bc]  imaginary 
  [  52c8]   __vector(
  [  52d4]  std::allocator
  [  52e4]  allocator
  [  52f0]  std::basic_string
  [  5304]  basic_string
  [  5314]  std::string
  [  5320]  std::basic_string<char, std::char_traits<char>, std::allocator<char> >
  [  5368]  std::istream
  [  5378]  std::basic_istream<char, std::char_traits<char> >
  [  53ac]  basic_istream
  [  53bc]  std::ostream
  [  53cc]  std::basic_ostream<char, std::char_traits<char> >
  [  5400]  basic_ostream
  [  5410]  std::iostream
  [  5420]  std::basic_iostream<char, std::char_traits<char> >
  [  5454]  basic_iostream
  [  5464]  aN
  [  5468]  &=
  [  546c]  aS
  [  5470]  =
  [  5474]  aa
  [  5478]  &&
  [  547c]  &
  [  5480]  an
  [  5484]  at
  [  5488]  alignof 
  [  5494]  az
  [  5498]  cc
  [  549c]  const_cast
  [  54a8]  ()
  [  54ac]  cm
  [  54b0]  ,
  [  54b4]  co
  [  54b8]  ~
  [  54bc]  dV
  [  54c0]  /=
  [  54c4]  da
  [  54c8]  delete[] 
  [  54d4]  dc
  [  54d8]  dynamic_cast
  [  54e8]  de
  [  54ec]  dl
  [  54f0]  delete 
  [  54f8]  ds
  [  54fc]  .*
  [  5500]  .
  [  5504]  dv
  [  5508]  /
  [  550c]  eO
  [  5510]  ^=
  [  5514]  eo
  [  5518]  ^
  [  551c]  eq
  [  5520]  ==
  [  5524]  ge
  [  5528]  >=
  [  552c]  ::
  [  5530]  gt
  [  5534]  >
  [  5538]  lS
  [  553c]  <<=
  [  5540]  le
  [  5544]  <=
  [  5548]  operator"" 
  [  5554]  ls
  [  5558]  <<
  [  555c]  lt
  [  5560]  <
  [  5564]  mI
  [  5568]  -=
  [  556c]  mL
  [  5570]  *=
  [  5574]  mi
  [  5578]  -
  [  557c]  ml
  [  5580]  mm
  [  5584]  --
  [  5588]  na
  [  558c]  new[]
  [  5594]  ne
  [  5598]  !=
  [  559c]  ng
  [  55a0]  nt
  [  55a4]  !
  [  55a8]  nw
  [  55ac]  new
  [  55b0]  oR
  [  55b4]  |=
  [  55b8]  oo
  [  55bc]  ||
  [  55c0]  or
  [  55c4]  |
  [  55c8]  pL
  [  55cc]  +=
  [  55d0]  pl
  [  55d4]  +
  [  55d8]  pm
  [  55dc]  ->*
  [  55e0]  pp
  [  55e4]  ++
  [  55e8]  ps
  [  55ec]  ->
  [  55f0]  ?
  [  55f4]  rM
  [  55f8]  %=
  [  55fc]  rS
  [  5600]  >>=
  [  5604]  rc
  [  5608]  reinterpret_cast
  [  561c]  rm
  [  5620]  %
  [  5624]  rs
  [  5628]  >>
  [  562c]  sc
  [  5630]  static_cast
  [  563c]  sizeof 
  [  5644]  sz
  [  5648]  tr
  [  564c]  throw
  [  5654]  tw
  [  5658]  throw 
  [  5660]  signed char
  [  566c]  bool
  [  5674]  boolean
  [  567c]  char
  [  5684]  byte
  [  568c]  double
  [  5694]  long double
  [  56a0]  float
  [  56a8]  __float128
  [  56b4]  unsigned char
  [  56c4]  int
  [  56c8]  unsigned int
  [  56d8]  unsigned
  [  56e4]  long
  [  56ec]  unsigned long
  [  56fc]  __int128
  [  5708]  unsigned __int128
  [  571c]  short
  [  5724]  unsigned short
  [  5734]  void
  [  573c]  wchar_t
  [  5744]  long long
  [  5750]  unsigned long long
  [  5764]  decimal32
  [  5770]  decimal64
  [  577c]  decimal128
  [  5788]  half
  [  5790]  char16_t
  [  579c]  char32_t
  [  57a8]  decltype(nullptr)
  [  57bc]  w
  [  57c0]  a
  [  57c4]  a+b
  [  57c8]  r
  [  57cc]  r+
  [  57d0]  w+
  [  57d4]  a+
  [  57d8]  wb
  [  57dc]  ab
  [  57e0]  rb
  [  57e4]  r+b
  [  57e8]  w+b
  [  57ec]  N10__cxxabiv115__forced_unwindE
  [  580c]  N10__cxxabiv119__foreign_exceptionE
  [  5830]  St9exception
  [  5840]  St13bad_exception
  [  5854]  N10__cxxabiv120__si_class_type_infoE
  [  587c]  St9type_info
  [  588c]  St13basic_istreamIwSt11char_traitsIwEE
  [  58b4]  Si
  [  58b8]  St9time_base
  [  58c8]  St10ctype_base
  [  58d8]  St10money_base
  [  58e8]  St13messages_base
  [  58fc]  St12codecvt_base
  [  5914]  St7num_putIcSt19ostreambuf_iteratorIcSt11char_traitsIcEEE
  [  5950]  St15numpunct_bynameIcE
  [  5968]  St9money_putIcSt19ostreambuf_iteratorIcSt11char_traitsIcEEE
  [  59a4]  St17moneypunct_bynameIcLb1EE
  [  59c4]  St16__numpunct_cacheIcE
  [  59dc]  St21__ctype_abstract_baseIcE
  [  59fc]  St14codecvt_bynameIcc9mbstate_tE
  [  5a20]  St11__timepunctIcE
  [  5a34]  St14collate_bynameIcE
  [  5a4c]  St9money_getIcSt19istreambuf_iteratorIcSt11char_traitsIcEEE
  [  5a88]  St18__moneypunct_cacheIcLb1EE
  [  5aa8]  St7num_getIcSt19istreambuf_iteratorIcSt11char_traitsIcEEE
  [  5ae4]  St17moneypunct_bynameIcLb0EE
  [  5b04]  St15time_get_bynameIcSt19istreambuf_iteratorIcSt11char_traitsIcEEE
  [  5b48]  St8time_putIcSt19ostreambuf_iteratorIcSt11char_traitsIcEEE
  [  5b84]  St8messagesIcE
  [  5b94]  St15time_put_bynameIcSt19ostreambuf_iteratorIcSt11char_traitsIcEEE
  [  5bd8]  St8numpunctIcE
  [  5be8]  St10moneypunctIcLb0EE
  [  5c00]  St8time_getIcSt19istreambuf_iteratorIcSt11char_traitsIcEEE
  [  5c3c]  St7collateIcE
  [  5c4c]  St10moneypunctIcLb1EE
  [  5c64]  St18__moneypunct_cacheIcLb0EE
  [  5c84]  St15messages_bynameIcE
  [  5c9c]  St17__timepunct_cacheIcE
  [  5cb8]  St23__codecvt_abstract_baseIcc9mbstate_tE
  [  5cec]   
  [  5cf0]  ?
  [  5d00]  NSt6locale5facetE
  [  5d14]  C
  [  5d20]  G
  [  5d24]  M
  [  5d28]  T
  [  5d30]  H
  [  5d34]  S
  [  5d38]  T
  [  5d40]  A
  [  5d44]  K
  [  5d48]  S
  [  5d4c]  T
  [  5d54]  P
  [  5d58]  S
  [  5d5c]  T
  [  5d64]  M
  [  5d68]  S
  [  5d6c]  T
  [  5d74]  C
  [  5d78]  S
  [  5d7c]  T
  [  5d84]  E
  [  5d88]  S
  [  5d8c]  T
  [  5d94]  A
  [  5d98]  S
  [  5d9c]  T
  [  5da4]  N
  [  5da8]  S
  [  5dac]  T
  [  5db4]  C
  [  5db8]  E
  [  5dbc]  T
  [  5dc4]  I
  [  5dc8]  S
  [  5dcc]  T
  [  5dd4]  E
  [  5dd8]  E
  [  5ddc]  T
  [  5de4]  J
  [  5de8]  S
  [  5dec]  T
  [  5df8]  t
  [  5dfc]  r
  [  5e00]  u
  [  5e04]  e
  [  5e0c]  f
  [  5e10]  a
  [  5e14]  l
  [  5e18]  s
  [  5e1c]  e
  [  5e24]  %
  [  5e28]  m
  [  5e2c]  /
  [  5e30]  %
  [  5e34]  d
  [  5e38]  /
  [  5e3c]  %
  [  5e40]  y
  [  5e48]  %
  [  5e4c]  H
  [  5e50]  :
  [  5e54]  %
  [  5e58]  M
  [  5e5c]  :
  [  5e60]  %
  [  5e64]  S
  [  5e6c]  A
  [  5e70]  M
  [  5e78]  P
  [  5e7c]  M
  [  5e84]  S
  [  5e88]  u
  [  5e8c]  n
  [  5e90]  d
  [  5e94]  a
  [  5e98]  y
  [  5ea0]  M
  [  5ea4]  o
  [  5ea8]  n
  [  5eac]  d
  [  5eb0]  a
  [  5eb4]  y
  [  5ebc]  T
  [  5ec0]  u
  [  5ec4]  e
  [  5ec8]  s
  [  5ecc]  d
  [  5ed0]  a
  [  5ed4]  y
  [  5edc]  W
  [  5ee0]  e
  [  5ee4]  d
  [  5ee8]  n
  [  5eec]  e
  [  5ef0]  s
  [  5ef4]  d
  [  5ef8]  a
  [  5efc]  y
  [  5f04]  T
  [  5f08]  h
  [  5f0c]  u
  [  5f10]  r
  [  5f14]  s
  [  5f18]  d
  [  5f1c]  a
  [  5f20]  y
  [  5f28]  F
  [  5f2c]  r
  [  5f30]  i
  [  5f34]  d
  [  5f38]  a
  [  5f3c]  y
  [  5f44]  S
  [  5f48]  a
  [  5f4c]  t
  [  5f50]  u
  [  5f54]  r
  [  5f58]  d
  [  5f5c]  a
  [  5f60]  y
  [  5f68]  S
  [  5f6c]  u
  [  5f70]  n
  [  5f78]  M
  [  5f7c]  o
  [  5f80]  n
  [  5f88]  T
  [  5f8c]  u
  [  5f90]  e
  [  5f98]  W
  [  5f9c]  e
  [  5fa0]  d
  [  5fa8]  T
  [  5fac]  h
  [  5fb0]  u
  [  5fb8]  F
  [  5fbc]  r
  [  5fc0]  i
  [  5fc8]  S
  [  5fcc]  a
  [  5fd0]  t
  [  5fd8]  J
  [  5fdc]  a
  [  5fe0]  n
  [  5fe4]  u
  [  5fe8]  a
  [  5fec]  r
  [  5ff0]  y
  [  5ff8]  F
  [  5ffc]  e
  [  6000]  b
  [  6004]  r
  [  6008]  u
  [  600c]  a
  [  6010]  r
  [  6014]  y
  [  601c]  M
  [  6020]  a
  [  6024]  r
  [  6028]  c
  [  602c]  h
  [  6034]  A
  [  6038]  p
  [  603c]  r
  [  6040]  i
  [  6044]  l
  [  604c]  M
  [  6050]  a
  [  6054]  y
  [  605c]  J
  [  6060]  u
  [  6064]  n
  [  6068]  e
  [  6070]  J
  [  6074]  u
  [  6078]  l
  [  607c]  y
  [  6084]  A
  [  6088]  u
  [  608c]  g
  [  6090]  u
  [  6094]  s
  [  6098]  t
  [  60a0]  S
  [  60a4]  e
  [  60a8]  p
  [  60ac]  t
  [  60b0]  e
  [  60b4]  m
  [  60b8]  b
  [  60bc]  e
  [  60c0]  r
  [  60c8]  O
  [  60cc]  c
  [  60d0]  t
  [  60d4]  o
  [  60d8]  b
  [  60dc]  e
  [  60e0]  r
  [  60e8]  N
  [  60ec]  o
  [  60f0]  v
  [  60f4]  e
  [  60f8]  m
  [  60fc]  b
  [  6100]  e
  [  6104]  r
  [  610c]  D
  [  6110]  e
  [  6114]  c
  [  6118]  e
  [  611c]  m
  [  6120]  b
  [  6124]  e
  [  6128]  r
  [  6130]  J
  [  6134]  a
  [  6138]  n
  [  6140]  F
  [  6144]  e
  [  6148]  b
  [  6150]  M
  [  6154]  a
  [  6158]  r
  [  6160]  A
  [  6164]  p
  [  6168]  r
  [  6170]  J
  [  6174]  u
  [  6178]  n
  [  6180]  J
  [  6184]  u
  [  6188]  l
  [  6190]  A
  [  6194]  u
  [  6198]  g
  [  61a0]  S
  [  61a4]  e
  [  61a8]  p
  [  61b0]  O
  [  61b4]  c
  [  61b8]  t
  [  61c0]  N
  [  61c4]  o
  [  61c8]  v
  [  61d0]  D
  [  61d4]  e
  [  61d8]  c
  [  61e0]  N9__gnu_cxx18stdio_sync_filebufIwSt11char_traitsIwEEE
  [  6218]  N9__gnu_cxx18stdio_sync_filebufIcSt11char_traitsIcEEE
  [  6250]  So
  [  6254]  St13basic_ostreamIwSt11char_traitsIwEE
  [  627c]  St15basic_streambufIwSt11char_traitsIwEE
  [  62a8]  St15basic_streambufIcSt11char_traitsIcEE
  [  62d8]  St10moneypunctIwLb0EE
  [  62f0]  St10moneypunctIwLb1EE
  [  6308]  St14codecvt_bynameIwc9mbstate_tE
  [  632c]  St18__moneypunct_cacheIwLb0EE
  [  634c]  St9money_putIwSt19ostreambuf_iteratorIwSt11char_traitsIwEEE
  [  6388]  St15numpunct_bynameIwE
  [  63a0]  St7num_putIwSt19ostreambuf_iteratorIwSt11char_traitsIwEEE
  [  63dc]  St17moneypunct_bynameIwLb1EE
  [  63fc]  St14collate_bynameIwE
  [  6414]  St7collateIwE
  [  6424]  St17__timepunct_cacheIwE
  [  6440]  St7num_getIwSt19istreambuf_iteratorIwSt11char_traitsIwEEE
  [  647c]  St17moneypunct_bynameIwLb0EE
  [  649c]  St18__moneypunct_cacheIwLb1EE
  [  64bc]  St23__codecvt_abstract_baseIwc9mbstate_tE
  [  64e8]  St8messagesIwE
  [  64f8]  St16__numpunct_cacheIwE
  [  6510]  St15messages_bynameIwE
  [  6528]  St21__ctype_abstract_baseIwE
  [  6548]  St11__timepunctIwE
  [  655c]  St15time_get_bynameIwSt19istreambuf_iteratorIwSt11char_traitsIwEEE
  [  65a0]  St8time_putIwSt19ostreambuf_iteratorIwSt11char_traitsIwEEE
  [  65dc]  St9money_getIwSt19istreambuf_iteratorIwSt11char_traitsIwEEE
  [  6618]  St15time_put_bynameIwSt19ostreambuf_iteratorIwSt11char_traitsIwEEE
  [  665c]  St8numpunctIwE
  [  666c]  St8time_getIwSt19istreambuf_iteratorIwSt11char_traitsIwEEE
  [  66a8]  St17bad_function_call
  [  66c0]  *N12_GLOBAL__N_121future_error_categoryE
  [  66ec]  NSt13__future_base12_Result_baseE
  [  6710]  St12future_error
  [  6724]  St11regex_error
  [  673b]  ?ÿÿÿÿ*N12_GLOBAL__N_121system_error_categoryE
  [  676c]  St14error_category
  [  6780]  *N12_GLOBAL__N_122generic_error_categoryE
  [  67ac]  St12system_error
  [  67cc]  St9bad_alloc
  [  67dc]  St8bad_cast
  [  67e8]  St10bad_typeid
  [  67f8]  N9__gnu_cxx20recursive_init_errorE
  [  6820]  N10__cxxabiv121__vmi_class_type_infoE
  [  6848]  St7codecvtIwc9mbstate_tE
  [  6864]  St7codecvtIcc9mbstate_tE
  [  6884]  St5ctypeIcE
  [  6890]  D^B
  [  6894]  St5ctypeIwE
  [  68a0]  St12ctype_bynameIwE
  [  68b9]   
  [  68c4]  St12ctype_bynameIcE
  [  68f4]  "
  [  68f8]  7
  [  68fc]  Y
  [  6908]  y^A
  [  690c]  b^B
  [  6914]  =^F
  [  691c]  U^P
  [  6920]  m^Z
  [  6925]  *
  [  6928]  /E
  [  692d]  o
  [  6930]   µ
  [  6935]  %^A
  [  6938]  1Ú^A
  [  693c]  Bÿ^B
  [  6940]  sÙ^D
  [  6948]  (²^L
  [  6951]  =!
  [  6956]  5
  [  695a]  W
  [  6964]  yp^A)pT^B¢^NÅ^CË~^Y^FmŞ^I8^Lø^O¥™Ö^YİÎ)‚?¥C_åsmá$^Y±^A
  [  69ac]  "
  [  69b0]  7
  [  69b4]  Y
  [  69c0]  y^A
  [  69c4]  b^B
  [  69cc]  =^F
  [  69d4]  U^P
  [  69d8]  m^Z
  [  69dd]  *
  [  69e0]  /E
  [  69e5]  o
  [  69e8]   µ
  [  69ed]  %^A
  [  69f0]  1Ú^A
  [  69f4]  Bÿ^B
  [  69f8]  sÙ^D
  [  6a00]  (²^L
  [  6a09]  =!
  [  6a0e]  5
  [  6a12]  W
  [  6a1c]  yp^A)pT^B¢^NÅ^CË~^Y^FmŞ^I8^Lø^O¥™Ö^YİÎ)‚?¥C_åsmá$^Y±N9__gnu_cxx13stdio_filebufIwSt11char_traitsIwEEE
  [  6a7c]  N9__gnu_cxx13stdio_filebufIcSt11char_traitsIcEEE
  [  6ab0]  St9basic_iosIwSt11char_traitsIwEE
  [  6ad4]  St9basic_iosIcSt11char_traitsIcEE
  [  6b10]  J
  [  6b19]  @
  [  6b24]  @
  [  6b28]   
  [  6b30]  St8ios_base
  [  6b51]   
  [  6b54]   
  [  6b80]  NSt8ios_base7failureE
  [  6b98]  St13runtime_error
  [  6bac]  St16invalid_argument
  [  6bc4]  St12out_of_range
  [  6bd8]  St11logic_error
  [  6be8]  St11range_error
  [  6bf8]  St14overflow_error
  [  6c0c]  St12domain_error
  [  6c20]  St12length_error
  [  6c34]  St15underflow_error
  [  6c48]  St13basic_fstreamIwSt11char_traitsIwEE
  [  6c70]  St13basic_filebufIwSt11char_traitsIwEE
  [  6c98]  St14basic_ofstreamIwSt11char_traitsIwEE
  [  6cc0]  St14basic_ifstreamIcSt11char_traitsIcEE
  [  6ce8]  St13basic_fstreamIcSt11char_traitsIcEE
  [  6d10]  St13basic_filebufIcSt11char_traitsIcEE
  [  6d38]  St14basic_ofstreamIcSt11char_traitsIcEE
  [  6d60]  St14basic_ifstreamIwSt11char_traitsIwEE
  [  6d88]  St16bad_array_length
  [  6da0]  St20bad_array_new_length
  [  6dbd]  pıÿàpıÿàpıÿàpıÿàpıÿèpıÿèpıÿèpıÿèpıÿ²pıÿ²pıÿàpıÿ²pıÿ²pıÿ²pıÿ²pıÿ²pıÿ²pıÿ²pıÿ²pıÿ²pıÿ²pıÿ²pıÿ²pıÿèpıÿ¶pıÿ¶pıÿ¶pıÿ¶pıÿ¶pıÿ¶pıÿ¶pıÿ¶pıÿàpıÿ²pıÿ²pıÿ²pıÿ²pıÿ²pıÿèpıÿ²pıÿ¶pıÿäpıÿàpıÿèpıÿàpıÿ¶pıÿ¶pıÿäpıÿèpıÿèpıÿ²pıÿ²pıÿ²pıÿàpıÿàpıÿàpıÿàpıÿàpıÿ²pıÿàpıÿàpıÿ²pıÿàpıÿèpıÿèpıÿ²pıÿ²pıÿ²pıÿèpıÿèpıÿèpıÿ²pıÿ²pıÿ²pıÿàpıÿàpıÿ¾rıÿÒrıÿÒrıÿÒrıÿàrıÿ¾rıÿ¾rıÿ¸rıÿ¸rıÿÒrıÿÒrıÿÒrıÿÒrıÿÒrıÿÒrıÿÒrıÿÒrıÿÒrıÿÒrıÿÒrıÿÒrıÿÒrıÿÒrıÿÒrıÿ¾rıÿÒrıÿÒrıÿÒrıÿÒrıÿÒrıÿÒrıÿÒrıÿÒrıÿÒrıÿÒrıÿÄrıÿÄrıÿÒrıÿÒrıÿ¾rıÿÒrıÿÒrıÿÒrıÿÒrıÿÒrıÿÒrıÿÒrıÿÒrıÿÒrıÿ¾rıÿ¸rıÿÒrıÿÒrıÿÒrıÿÒrıÿÒrıÿÒrıÿÒrıÿÒrıÿÒrıÿÒrıÿÒrıÿÒrıÿÒrıÿ¾rıÿ¾rıÿÒrıÿÀrıÿÀrıÿÀrıÿÀrıÿ¾rıÿÒrıÿÒrıÿÒrıÿÒrıÿÒrıÿĞrıÿ¾rıÿ¾rıÿ¾rıÿ¾rıÿÔrıÿĞrıÿÊrıÿÊrıÿ¾rıÿ¾rıÿ¾rıÿ¾rıÿ¾rıÿ¾rıÿ¾rıÿ¾rıÿ¾rıÿ¾rıÿ¾rıÿ¾rıÿ¾rıÿ¾rıÿ¾rıÿĞrıÿ¾rıÿ¾rıÿ¾rıÿ¾rıÿ¾rıÿ¾rıÿ¾rıÿ¾rıÿ¾rıÿ¾rıÿ¾rıÿ¾rıÿ¾rıÿ¾rıÿĞrıÿ¾rıÿ¾rıÿ¾rıÿ¾rıÿ¾rıÿ¾rıÿ¾rıÿ¾rıÿ¾rıÿĞrıÿÊrıÿ¾rıÿ¾rıÿ¾rıÿ¾rıÿ¾rıÿ¾rıÿ¾rıÿ¾rıÿ¾rıÿ¾rıÿ¾rıÿ¾rıÿ¾rıÿĞrıÿ¾rıÿ¾rıÿ¾rıÿ¾rıÿĞrıÿ¾rıÿĞrıÿ¾rıÿ¾rıÿĞrıÿĞrıÿ”‰ıÿ”‰ıÿ”‰ıÿ”‰ıÿ”‰ıÿ”‰ıÿ”‰ıÿ”‰ıÿ”‰ıÿ”‰ıÿöˆıÿöˆıÿöˆıÿöˆıÿöˆıÿöˆıÿöˆıÿ ‰ıÿöˆıÿè‰ıÿ,Šıÿöˆıÿ^DŠıÿ^PŠıÿöˆıÿöˆıÿöˆıÿöˆıÿöˆıÿVŠıÿ”‰ıÿ~ŠıÿšŠıÿöˆıÿ¶ŠıÿÒıÿ^^‹ıÿ`‹ıÿöˆıÿöˆıÿöˆıÿöˆıÿ”‰ıÿöˆıÿöˆıÿöˆıÿöˆıÿöˆıÿöˆıÿ„‹ıÿ„‹ıÿ„‹ıÿ„‹ıÿ„‹ıÿ„‹ıÿ„‹ıÿ„‹ıÿ„‹ıÿ„‹ıÿöˆıÿ„‹ıÿ„‹ıÿ„‹ıÿ„‹ıÿöˆıÿöˆıÿöˆıÿ„‹ıÿ„‹ıÿ`‰ıÿ„‹ıÿ„‹ıÿ„‹ıÿ„‹ıÿ„‹ıÿÄıÿÊıÿÊıÿÊıÿÊıÿÊıÿÊıÿÊıÿÊıÿÊıÿÊıÿÊıÿÊıÿÊıÿ^F‡ıÿÊıÿÊıÿÊıÿÊıÿÊıÿÊıÿÊıÿÊıÿÊıÿÊıÿÊıÿÊıÿ´‹ıÿÊıÿÊıÿˆ‹ıÿN‹ıÿ^T‹ıÿÊıÿÚıÿ ŠıÿÊıÿÊıÿÊıÿÊıÿ„ŒıÿÊıÿlŒıÿÊıÿÊıÿDŒıÿ^F‡ıÿÊıÿ8Œıÿ^P™ıÿ^L™ıÿ^H™ıÿv—ıÿ^D™ıÿÒıÿ^\™ıÿZ™ıÿV™ıÿR™ıÿN™ıÿ.Ÿıÿ¢ıÿ¢ıÿ¢ıÿ¢ıÿ¢ıÿ¢ıÿ¢ıÿ¢ıÿ¢ıÿ¢ıÿ¢ıÿ¢ıÿ¢ıÿ¢ıÿ¢ıÿ¢ıÿêıÿ¢ıÿDŸıÿ¢ıÿÖıÿ¢ıÿ¢ıÿ¢ıÿ¢ıÿ¢ıÿ¢ıÿ¢ıÿ¢ıÿ¢ıÿ¢ıÿ¢ıÿ¢ıÿ¢ıÿ¢ıÿ¢ıÿ¢ıÿ¢ıÿ¢ıÿ¢ıÿ¢ıÿ¢ıÿ¢ıÿ¢ıÿ¢ıÿ¢ıÿ¢ıÿ¢ıÿLıÿ¦ıÿÚıÿÚıÿxŸıÿÚıÿdŸıÿPŸıÿ<ŸıÿÚıÿÚıÿÚıÿÚıÿÚıÿÚıÿÚıÿÚıÿ(Ÿıÿ^PŸıÿÚıÿøıÿäıÿÚıÿÚıÿÚıÿÚıÿÚıÿÚıÿÚıÿÚıÿÚıÿÚıÿÚıÿÔıÿÚıÿÚıÿÚıÿÚıÿ°ŸıÿÚıÿÚıÿÚıÿÚıÿÚıÿÚıÿÚıÿÚıÿÚıÿÚıÿÚıÿÚıÿÚıÿŒŸıÿ°ÌıÿNÌıÿNÌıÿtËıÿÈÊıÿ^^Òıÿ°ÑıÿNÒıÿ^RÊıÿLÑıÿ@ÊıÿÈĞıÿHÆıÿ4Æıÿ Æıÿ^LÆıÿøÅıÿÀÈıÿªÈıÿ”Èıÿ€Èıÿ^XÈıÿ°ÇıÿœÇıÿ^VÇıÿÚÉıÿÚÉıÿÚÉıÿÄÉıÿÄÉıÿÄÉıÿÄÉıÿÄÉıÿÄÉıÿÄÉıÿHÉıÿHÉıÿÄÉıÿÄÉıÿÖÈıÿĞÉıÿ”Åıÿ¢ÄıÿhÄıÿ^DÏıÿhÄıÿÎıÿÎıÿìÏıÿ¾Íıÿ*ÎıÿHÕıÿXÍıÿNÍıÿ$Íıÿ”ÔıÿnÔıÿNĞıÿBĞıÿBĞıÿPÀıÿPÀıÿ^HÔıÿæÅıÿÄÅıÿ Óıÿ¾Òıÿ¢Óıÿ®ÆıÿşÃıÿHÕıÿ‚ÃıÿXÒıÿ^ZÃıÿˆÂıÿÖÁıÿfÁıÿ’åıÿˆåıÿ|åıÿpåıÿœåıÿ^^ñıÿ¢ôıÿ¢ôıÿ¢ôıÿ¢ôıÿ¢ôıÿ¢ôıÿ¢ôıÿ¢ôıÿ¢ôıÿ¢ôıÿ¢ôıÿ¢ôıÿ¢ôıÿ¢ôıÿ¢ôıÿ¢ôıÿ¢ôıÿ¢ôıÿ¢ôıÿ¢ôıÿ¢ôıÿ0ñıÿŠñıÿäñıÿ0ñıÿŠñıÿäñıÿnòıÿ¦òıÿ^Hóıÿ2óıÿZóıÿbóıÿjóıÿÌóıÿ¢ôıÿ¢ôıÿ¢ôıÿ¢ôıÿ@ôıÿ¢ôıÿÀğıÿSd
  [  7700]  St14basic_iostreamIwSt11char_traitsIwEE

